10.8123015259053 10.7174526472835 11.0155848599464 11.2394521094215 10.7860375916756 9.16921376030637 6.31859752251628 2.56834633581884 -1.94114164297117 -7.10722206024319 -12.6843468795851 -18.2854672114206 -23.0587840081667 -25.7768192066784 -25.4915387868864 -21.512148897632 -13.6212829042229 -2.87618239719673 7.99764033370909 14.6872199323726 15.2160880564315 10.8868677006009 3.75286771369885 -3.04683645437875 -5.21246247470948
-0.108631210287745 -0.00627749944078121 0.104827403572053 0.291933416945413 0.601115002544815 1.0531853370608 1.589506639813 2.05072493164172 2.25381149596814 2.03079203993021 1.27470286826493 0.00548663601521885 -1.48160775951371 -2.68583145795872 -3.17634007946576 -2.83590332585103 -1.91236664871261 -0.69756191532332 0.516359934813258 1.34715545249915 1.56291616240208 1.26337976883505 0.639259070229908 -0.0178560341931893 -0.266010118487477
-0.113225664545467 -0.0677101541584949 -0.0330620879737764 0.0235026293500268 0.134416598891846 0.338309010511412 0.663301618075034 1.06337902237336 1.37711930858213 1.41975122849714 1.07359674776971 0.366592793491881 -0.555389001286539 -1.43669702185515 -1.986757550011 -1.99280097392627 -1.43720816131138 -0.519020590994271 0.35513254667149 0.863143499402729 0.97615465895229 0.778341883585643 0.385653733559419 -0.0202880998860194 -0.171627522420375
